{"type":"NeuralNetwork","sizes":[5,2,3,5,7],"layers":[{"weights":[],"biases":[]},{"weights":[[-0.19747991859912872,0.0011027756845578551,-0.061153344810009,3.410820245742798,100.24679565429688],[1.5005147457122803,-0.7191445827484131,-0.07543284446001053,-0.7422847747802734,121.49026489257812]],"biases":[-21.7584285736084,-13.395938873291016]},{"weights":[[110.17816925048828,-107.44915008544922],[47.58981704711914,26.015506744384766],[130.9311981201172,21.32623863220215]],"biases":[0.3986058533191681,-26.89141273498535,-16.009328842163086]},{"weights":[[-2.055713176727295,-22.531558990478516,15.521120071411133],[4.938302993774414,-14.428474426269531,6.545544147491455],[-1.786396861076355,-21.147216796875,-36.05971145629883],[48.0539436340332,-6.506378173828125,-95.4168701171875],[24.317670822143555,39.50617599487305,-45.9779052734375]],"biases":[5.216183185577393,4.628135681152344,35.49898910522461,-1.698723554611206,-12.81473445892334]},{"weights":[[-22.119932174682617,0.6732823848724365,-5.100621700286865,-4.651203632354736,7.830018043518066],[-1.9350714683532715,3.131517171859741,15.305688858032227,-41.81680679321289,-3.977299690246582],[8.625584602355957,3.660989284515381,-14.515525817871094,-6.21784782409668,-11.245772361755371],[-4.384207248687744,-5.395153522491455,4.587451934814453,42.49074935913086,-41.50648498535156],[-6.017959117889404,-4.727938652038574,-3.928398847579956,-4.258880615234375,-4.000919342041016],[-5.2166900634765625,-4.063091278076172,-2.973506450653076,-3.2119247913360596,-3.0240468978881836],[-7.4381794929504395,-5.8708014488220215,-5.052750587463379,-4.32558012008667,-7.0119099617004395]],"biases":[-3.1637465953826904,-6.329065322875977,-7.407747268676758,-5.242074012756348,-5.0090131759643555,-5.080633640289307,7.005604267120361]}],"inputLookup":{"surface":0,"annee":1,"geo":2,"ges":3,"conso":4},"inputLookupLength":5,"outputLookup":{"G":0,"D":1,"E":2,"C":3,"A":4,"B":5,"F":6},"outputLookupLength":7,"options":{"inputSize":0,"outputSize":0,"binaryThresh":0.5,"hiddenLayers":[2,3,5]},"trainOpts":{"activation":"sigmoid","iterations":30000,"errorThresh":0.002,"log":true,"logPeriod":10,"leakyReluAlpha":0.01,"learningRate":0.01,"momentum":0.9,"callbackPeriod":10,"timeout":"Infinity","beta1":0.9,"beta2":0.999,"epsilon":1e-8}}